14 100
sentence 0.002248273 -0.0040968377 -0.0039785425 -0.004406163 0.0016229346 -0.00043995006 0.0019309646 -0.00017618891 0.0005442651 0.0021225344 0.0011429986 -0.0011585567 0.0025247724 0.003608994 -0.0042461357 0.0047874684 -0.001265619 0.0018241223 -0.0029954244 -0.004257563 0.0019547853 -0.0023404509 -0.0014252525 0.0026941786 0.0007918288 -0.00035393392 -0.00022223422 0.0026123764 -0.0044241026 -0.00010788945 -0.0025486664 0.004150147 -0.0040133847 -0.0021070975 0.0017002841 0.0034390346 0.0038756256 -0.004440673 0.0025305166 -0.00010930334 -0.00043925876 5.3639505e-06 0.0024936695 -0.003102552 0.0016095806 -0.0046431078 -0.004131392 0.0044641355 0.00065236195 0.0046058446 -0.0008625581 -0.0012284627 0.000104400024 -0.000731648 3.197033e-05 -0.0046068737 0.00053808885 0.004388106 -0.0021965106 0.0041027484 -0.0040294635 0.004695575 0.0035252308 -0.0018601973 0.0021502504 -0.000978372 -0.0047598034 0.0048465347 -0.0032405127 0.0019445025 -0.00078989955 -0.0028221235 0.0013634199 -0.0011636293 -0.00026680354 0.004140372 0.00040594483 0.0033272812 -0.0022666003 0.004057846 -0.0047455085 0.0035981406 -0.0003191152 0.0006840837 -0.0036872458 -0.0029372706 -0.0026200311 0.0033470984 0.004380005 -0.0045012683 -2.5007646e-06 -0.0027266338 0.0014276983 0.0018991678 -0.0010556433 0.003475123 -0.0025388186 0.003959026 -0.0012634782 -0.0020311968
the 0.0019747925 -0.0045231995 -0.002171519 0.0037002114 -0.0019335721 -0.0030005772 -0.0005468743 0.0019344261 -0.00078902737 -0.0047340314 -0.00073191203 -0.0022816886 -0.0004189641 0.00048057875 -0.0027416423 -0.001865713 0.0024464796 0.0028786235 0.0032245384 -0.004201911 -0.0028086514 -0.0028656402 0.0030499906 -0.0031699466 -0.0004811099 -0.003586365 -0.0029977988 0.0008672885 -0.0019459192 0.0041766977 -0.0038021682 0.0009844509 -0.0018308182 0.0029998769 -0.0031970846 -5.107056e-05 0.002371265 -0.00054050656 0.004787226 -0.001060341 0.00090497365 6.265382e-05 0.004848015 0.0015295763 -0.002057475 -0.004086802 -0.0042303326 -0.0012141592 -0.0031779015 0.004312928 0.0004831985 0.0031948725 0.0039709783 0.0006175507 -0.0048559327 0.0007794667 -0.003399969 0.0040129703 0.00444056 0.001875974 -0.0030547057 0.00034648326 -0.00033507173 -0.0033013644 0.003798537 0.0012496896 0.0009035929 0.0032423437 -0.0022698871 0.0010313411 0.0007846132 0.0026660706 -0.004067757 -9.5135634e-05 0.0044438485 0.00035192838 -0.004147435 -0.001400795 -0.0016478711 0.0043881834 -0.0042477306 0.0039569447 0.004329177 0.0026758062 -0.0028216124 -0.0034816798 0.001003944 -6.0098235e-05 -0.00058332505 0.001807565 -0.00018889457 -0.00055227365 0.00016683781 0.0019795236 -0.0008829636 0.0012179911 0.0012544622 0.00045367176 -0.00013836763 -0.0010373017
this 0.0017370969 0.0015011952 -0.0009442792 -0.002070925 0.0019572023 0.004334711 0.0009651696 -9.367027e-05 0.0027404064 -0.003135083 0.0048527983 0.0032553615 0.00039206463 -0.0043910677 -0.0029767584 -0.00056779996 0.0008183399 -0.0020329973 -0.0040491526 -0.0042984174 0.0022234344 0.0004077055 0.004642163 0.0047724564 0.0033291301 -0.0013152997 0.0029281685 -0.00262491 -0.003985529 -0.0020167043 -0.004370361 -0.0030601548 0.004203423 0.0001085827 0.0020044136 0.004482464 -0.0016333953 0.00016605601 -0.0014422383 -0.0025200925 0.0049296543 0.00041913852 0.0042366586 0.0006627189 0.0037604498 -0.004783248 -0.0018408904 -0.004691331 -0.0015740008 0.004120432 -0.0038760817 0.0024648006 0.0011195422 0.0048853694 0.0043725474 0.0037596321 -0.0034804281 -0.0018812566 -0.0046760538 -0.0032417148 0.0012417283 -0.0005848092 -0.0040468527 -0.00017554601 -0.001340781 -0.0010886497 0.0032407923 -0.00058586954 0.0048780823 -4.8934344e-05 -0.00274533 -0.004274631 -0.002386559 -0.00079685735 0.0005350507 -0.004993573 -0.0040068952 -0.0010058044 0.00061903254 -0.0023854873 -0.0038117692 0.0045361584 0.0046362793 -0.0012237558 0.00084537355 -0.0015048819 -0.0027946718 -0.0012525896 0.0016336093 -0.0037164048 -0.000681427 -0.002718175 -0.001856321 0.0032046274 -0.00067735725 0.0014772743 0.0027416947 0.004253711 0.003898071 -0.0017773269
is -0.0046055936 0.00013836684 0.0027720071 -0.0046481676 -0.0025296356 -0.0013783971 0.002678227 -0.004770366 -0.0037855026 -0.00071877235 -0.0030539911 -0.00012449174 0.00058305316 -0.001802197 -0.002187622 0.00019732784 -0.004362684 -0.00027997937 0.0010759339 -0.0040323455 0.0038360131 0.0044468474 -0.0011353596 0.0007510241 0.002439676 -0.0020364432 -0.0015908414 0.0015397565 -0.0022241843 0.0038129194 0.0031952593 -0.00288961 -2.0869742e-05 -0.0023626254 -0.0037570144 0.003357541 0.00063836767 -0.0022369658 -0.0047474424 0.0019134582 0.004276925 -0.0033411612 -1.4940585e-05 0.004081837 -0.00255199 -0.0010844903 0.0042022485 0.0041407775 0.0013574404 0.0043251785 -0.0026253515 0.00079461955 0.002256236 6.988746e-05 0.003388241 -0.002097563 -0.003114242 -0.001626408 -0.0040414543 -0.0010055805 -0.0023133766 0.0023147385 -0.0045686816 -0.004989374 0.0014315335 -0.000107876 0.001687616 0.004669476 0.0028176743 -0.0021395409 0.00080680795 -0.0016951405 0.001883048 -0.00056720735 0.0019685205 0.004903949 0.0011021579 -0.0035873791 -0.004224603 -0.0018451625 0.0016428212 0.00083937746 0.0028778673 -0.0021584686 0.0019270635 -0.0015263818 0.0028644283 -0.004789428 -0.0018745004 -0.0026230395 -0.0005766862 -0.002190181 0.002255906 -0.0004328547 -0.0042989976 0.0021840234 0.0039018127 0.0015362166 0.00021324404 0.001965497
first -0.0026423899 0.0030295881 0.0047097867 0.001703983 0.0018209616 0.004824169 -0.0016551939 0.003168578 -0.0038024946 -0.0046637394 -0.0031474826 -0.0044140704 -7.6916156e-05 -0.004582767 -0.0047311313 0.004702017 0.0035448587 0.0021464527 0.000101861326 0.004081818 -0.0026028336 -0.0035569838 -0.0022106306 -0.0017133139 -0.0039190804 0.0012649822 0.0017025735 -0.00029415137 -0.0010332814 -0.003985302 -0.0034635833 -0.004832316 0.0017004003 -0.004263418 0.000118542375 -0.0025032728 -0.00013875676 0.00036090813 -0.0027796498 0.002355743 -0.0015667028 0.004061857 0.004034106 0.00041696723 -0.0018647806 -0.0005058973 0.003237577 -0.00093056797 -0.00086503325 0.002773683 -0.003087303 -0.0019560654 0.0046546147 -0.0022043614 0.004609014 0.0025612554 0.004965611 -0.0010606697 0.0020311815 -0.00076509075 -0.004109357 -0.0043213624 -0.0047695865 0.0043317103 -0.0027385284 0.002391503 -0.00093202485 0.004227615 0.0013210913 -0.0037384834 0.001391327 -0.00382994 0.0002548402 -0.00092825334 0.0026653812 0.004157823 0.00437435 0.000827607 0.0037425223 -0.0030465133 -0.0001488028 0.0035483618 -0.004154604 0.004574395 0.00055432296 -0.003597964 -0.0021919343 0.0024808913 -0.0013133845 -0.0035644118 -0.0049187914 0.0028634921 0.0021986037 -0.0029324726 -0.0031983946 0.0013910666 0.0012498627 -0.003243907 0.0030595376 -0.0003001503
for 0.0020532436 0.0024944604 -0.003362743 0.004517751 -0.0014847558 -0.0012173447 -0.0030438504 -0.0042342735 -0.0017671628 -0.0030305772 -0.003333285 -0.0030251152 0.0033011395 -0.0013821813 -0.0023898764 -0.0036618041 -0.00085764437 -8.379435e-05 -0.0030320154 -0.0013310373 0.0015778925 -0.0030874552 0.0012773483 -0.0037121794 0.0032536662 0.0040573403 0.000542247 -0.0030409794 -0.004864006 -0.0016793518 0.002551566 -0.00025566618 0.00032821286 -0.0005928849 0.0032107567 0.0049625277 0.0032726927 -0.0001858317 -0.0024543684 0.0041050054 0.0025970868 -0.0049368925 -0.0023824128 -0.002088006 0.0014118227 -0.0010760009 -0.0023750793 -0.001560768 -0.0010817153 0.0022629737 0.004027116 -0.001922209 0.0040642587 -0.0007618372 0.0024932115 0.0013422346 -0.002842999 -0.003727627 -0.00253528 -0.003615802 0.0047537945 0.0043449537 -0.004017348 2.4837796e-05 0.001477193 -0.00040803856 0.001232195 0.0040893364 -0.001650512 0.000983041 0.0014573568 0.0025452783 0.004403975 0.004583157 0.0027359857 -0.0013906616 -0.0028944132 -0.00022654656 0.0038768009 0.004545908 -0.0046606376 0.00046447103 0.002041367 -0.0026893357 0.0010839178 0.0029882998 0.0022670964 -0.0028618209 0.0042525916 0.0029771482 -0.0005169053 0.0038768682 0.0037427866 -0.0016596555 -0.0011269114 -0.0029366217 -0.002752586 0.0035518373 -0.0013015731 -0.004148134
word2vec 7.127824e-05 8.324133e-05 -0.00060525216 0.0010951902 -0.0004855946 -0.00299292 0.0017225535 -0.00022112383 -0.0014136294 -0.00055613375 0.004734955 0.00094968296 -0.003102426 0.0003277003 0.004092898 0.0012456255 0.0007326471 0.004413383 -0.0010009703 0.0022758695 0.0018261622 -0.00052764243 -0.00027070643 0.0042652097 -0.0043087704 2.5542035e-05 -0.004807198 -0.0020413538 -0.002218458 0.0021957161 0.00015311303 -0.0025090934 0.0018902831 -0.0012050378 -0.004326088 -0.003111486 0.003514256 -0.0018798226 0.00096226914 -0.004748846 -0.0040245433 0.001638651 -0.0014226628 -0.0024169444 0.0017073975 -0.00062334293 -0.00228651 -0.0028571945 -0.004191265 -0.00014539258 0.003808086 0.0030308052 0.0021946786 -0.000379176 0.0024622155 -0.0010355329 0.0025881124 0.00045415293 -0.004538822 0.0030831245 0.003636242 -0.0048095807 -0.0033035574 -0.0016782684 0.00031685006 -0.0007695633 -0.0025420997 -0.0046660807 0.0048597413 0.0012994214 -0.004502985 0.0049429405 -0.00066520396 -0.00108751 -0.00225057 0.0013871136 -0.00061549846 -0.0033375532 0.0042302376 -0.0023372832 0.0042174445 0.0028116447 -0.002143562 -0.0002097102 0.0037305208 -0.003754812 -0.0033465654 -0.0011440489 -0.0013416136 -0.0024050649 0.0020255363 0.0020612627 3.875275e-05 0.0037803538 0.0026900778 0.0008806326 0.00174921 0.00022529588 -0.00051138527 -0.004156172
second 0.002550528 -0.0011642644 0.0027596657 -0.0007936106 0.0035162491 0.0032508913 -0.0049470942 -0.0039450335 0.0037899865 -0.0013100564 -0.00022861194 0.004388862 0.0029065458 -0.0019765203 0.0015792565 0.0038710956 -0.0021302896 0.0022711856 -0.002667667 0.004958094 -0.000785564 0.00035445328 -0.0038911449 -0.0019774213 0.0027775078 0.0027689387 0.004716447 -0.0049506393 -0.0038844983 -0.0012330897 -0.0037591157 0.0005075867 0.0044937083 0.004566093 0.0009791674 -0.0023511047 0.0020813965 0.0029470874 -0.0024218925 0.0017236177 0.0008184881 -0.00058145955 0.0010825092 0.0024935398 0.0032027925 0.003753595 -0.0038576112 0.0036949047 -0.0021592048 0.004981874 0.00055903266 -0.00044690463 0.004554872 -0.0032750969 0.004507628 0.00479379 -0.0036574495 0.0014832558 0.0022173002 0.0008045708 -0.004190027 -0.004097681 0.002765206 0.0018585537 0.0025120154 -0.00018385948 0.0024782969 0.0036672624 -0.0024723408 -0.0024262164 -0.0010088255 0.0042344444 -0.0022140476 -0.004661284 0.0020958986 -0.0024178708 -0.0014683467 -0.0021818993 -0.002686626 0.0012492767 -0.0039474857 -0.002265398 0.0040753614 -0.0036911892 -0.0012954184 -0.0024513241 -0.002671066 0.0026421715 0.0018443564 -0.0033907916 0.0011249044 -0.00072130095 0.0039664926 -0.0031468123 -0.0032160426 0.0011221291 -0.00075190706 -0.0032605394 0.00037268395 -0.00029239355
yet -0.0033757924 -0.004557327 -0.004728193 -0.001929718 0.0015951176 -0.004138911 -0.0030565544 0.00026088557 -0.0014246478 0.0035553249 0.0035041913 -0.0028898136 0.0043018167 -0.0005310126 -0.00034412343 0.0037009655 0.0046043517 0.0014631089 0.0014241029 -0.0018256726 0.0009944335 -0.0023735284 -0.00428836 0.0010059245 0.002744437 -0.0035173607 -0.004193516 -0.003551414 -0.00443251 0.0020855218 -0.0014308026 -0.0018345927 0.0029312712 0.0014874141 0.0042405617 -0.003531001 -0.001143215 0.0044966633 -0.0009018262 -0.0008816248 -0.0031466088 0.0046257745 -0.0028606635 -0.001633324 0.002027911 -0.0027807327 0.0017897253 0.0007826369 -0.002352419 0.0023417932 -0.0006678025 0.0011019238 -0.001613789 -0.0017991101 0.0042830575 0.0007428161 0.0013217293 -0.0018454246 -0.0011178774 0.0025201307 -0.00052630034 -0.0019121732 -0.00023167208 0.0007833723 0.0038203574 -0.0035698935 0.004576092 0.0047746487 0.0014415402 -0.0016419751 0.0036486937 0.0011934766 0.0026661595 0.003368149 -0.0011237956 0.0019645707 -0.004895359 0.004416093 0.0010335202 0.0034744488 -0.0026392413 -0.0021173235 -0.0041025276 -0.0046579186 -0.0003258871 0.0010777811 -0.0018268042 0.0013124928 0.0032420787 -0.0033492176 -0.0010797424 -0.0019369317 0.00022486039 0.0039481167 0.004661136 -0.0038065456 -0.0006182142 0.000983181 0.003145548 -0.004884447
another -0.003206299 0.0034366578 -0.0005943434 0.0034651966 -0.002837223 -0.0022852954 -0.0007753624 0.0041382276 0.0022571383 -0.004917516 0.00022207803 -0.00480621 -0.0031794608 0.0014278695 -0.0004238783 -0.0026878833 0.0044809855 -0.0029223808 4.835731e-05 -0.0026329493 0.0018528443 0.0040839687 -0.0024241265 -0.004115296 -0.004598073 0.004213337 -0.0031782072 0.0011769829 -0.0038857337 -0.0035800461 -0.0038970292 -5.7414847e-05 0.0048198244 -0.0028807796 0.0022981279 0.0016753394 -0.0008880714 0.0004931375 0.0036186918 -0.00074622553 0.0021315147 -0.0033772206 0.0014741438 -0.0034773143 -0.0038908268 0.0048612976 -0.00189987 -0.0023218803 0.003087532 0.002620127 -0.0018987032 -0.0046447786 0.003749882 0.0013630074 0.0041533583 0.0048015756 0.0029841398 -0.0019108095 -0.0016782099 0.0032928688 0.003931581 0.0023673042 -0.002369527 0.003595263 -0.0021948311 0.0027781518 -0.0015709533 0.0022836768 -0.0043320144 -0.0004712585 -0.0046727452 0.003992506 -0.002258295 -0.0035874448 -0.0028235463 0.0034887216 -0.004387332 0.0035970032 -0.00486315 0.0017474446 0.0011995208 0.0020323843 0.0002753151 -0.004185367 0.0048756646 -0.0042660125 0.0010456472 0.0013950169 0.0043954863 -2.7381084e-05 -0.0043765786 0.00022075608 -0.0039825737 -0.004276635 -0.0022123142 0.0012631707 0.0047059413 0.0027354136 0.0007774665 -0.0013805073
one -0.0037293208 -0.0025549151 0.0018710641 -0.004968421 0.0032284977 0.0032567603 -0.0035521141 -0.00017862457 -0.0010065712 -0.00016029134 -0.0048829364 -0.0043395055 -0.004553751 -0.002945814 -0.0011352669 0.0013539247 -0.0015368246 0.0029598656 0.00482941 0.0025462098 0.00092357333 -0.0048630154 0.0026394902 0.0025764396 0.0033020794 0.001213975 -0.0042583533 0.0033186844 -0.0022926142 -0.0020120062 -0.004961461 0.0010747834 -0.0007705321 0.00069048005 0.002359378 0.0029755014 -0.0006923243 -0.0021418936 -0.00083346985 -0.0023803664 0.0013649982 -0.0007799647 0.0020194878 0.0028916295 0.0016593293 -0.0026878729 -0.004187075 0.0007532537 -0.0006035626 0.00082507776 -0.003515494 -0.002670866 0.0038106153 -0.0017581871 0.00080671353 -0.0043337387 0.0023090916 0.00476384 0.0009865309 -9.061046e-05 -0.0020574601 -0.002463731 -0.0047766706 0.004551688 0.004708213 -0.001090331 0.003965805 0.00021340072 0.0014787675 0.004698892 -0.0015353705 0.0043967594 -0.0035793881 -2.7459133e-05 0.0029100466 -0.0019744055 0.003171783 0.0022501103 0.0025797114 0.0033664405 0.004016405 -0.003217272 0.0036712515 0.0042468617 0.0040538437 0.0013433973 -0.00028412268 0.001485291 0.0035208296 -0.00410051 -0.001912103 -0.00091713597 -0.0029354778 0.0039798087 -0.002891859 0.0026064978 -0.0025474303 0.001258146 0.0025038503 -0.0014137577
more -0.0041962657 0.0015304921 0.00067074335 0.0023658068 0.0022271532 -0.0044945846 -0.0037408916 -0.0037223026 0.003745554 -0.003139186 -0.0048513277 0.0020533958 -0.002660745 0.0018172278 8.452692e-05 0.0011285639 -0.0026343085 0.0045581805 -0.0039023901 -0.003449796 0.00475933 0.00060607283 -0.0035376847 -0.0036410813 -0.004748475 -0.0048196972 0.0023597085 -0.0006040578 0.0040216297 0.00341553 0.0002271343 0.0027202922 -0.000114114184 -0.0025766257 0.0033430445 0.0011181742 -0.001986394 -0.0044737943 -0.0009030971 0.0010833534 -0.0018811579 -0.0037625653 0.0034139333 -0.00090859574 -0.0004996669 0.00076186255 0.0013997409 -0.001374242 -0.0026502286 -0.0005277744 0.0023812712 -0.003623473 0.0008711793 -0.0047225356 -0.004399484 -0.0008122013 -0.0030222957 0.0006056189 -0.0014468142 -0.0027883186 -0.004139644 0.0029034552 0.0034105175 -0.001856685 -0.0030742392 -0.00032486444 -0.0005538555 -0.0030915665 0.0047188704 -0.002961669 0.0012107319 -0.0009794882 -0.0048546223 -0.0026670492 7.0407186e-05 -0.00092660665 0.0014365732 0.003984629 0.0023925046 0.0037529904 -0.004147834 0.004287812 -0.0044557806 -0.0047806012 0.0048347586 0.000575526 -0.0011847148 0.003344762 -0.0017603518 -0.0013204309 -0.0017704171 0.0017223248 0.0040983227 -0.0008649005 0.0038185862 0.00091730454 0.00059290463 0.0037544516 -0.0017234219 -0.0030983884
and -0.004936207 0.003934762 0.00024307179 -0.001785372 -0.000934279 -0.0042855386 -0.003198234 0.0027936948 -0.0029194301 0.003689631 -0.0011650759 0.002026312 0.0031167704 0.003150156 -0.0038656595 -0.0017158081 0.0021915354 -0.003552877 0.0004607271 -0.0015495118 -0.0041120253 0.0013720456 0.0038104884 -0.00031278492 -0.0015148862 0.004226029 -0.004701153 0.004113569 -0.002213408 0.00060459564 -0.004505803 0.0033687528 -0.0030906277 -0.0048196125 -0.0004047485 -0.00026451237 0.0038238089 -0.0029367984 0.002646895 0.00016525995 -0.0020840005 0.0001318539 -0.0008059449 -0.0021835142 -0.0012029955 -0.0033394415 0.004207043 -0.0025754392 -1.6538186e-05 -0.00035491475 0.004834631 0.0031514177 0.0012817481 -0.00273012 0.004196774 -0.0039043198 0.003558227 0.0030241588 0.0048255436 -0.0045226202 -0.0024047554 -0.002134264 0.00022613477 -0.0037623143 -0.0039867344 0.0003607478 0.0016360322 0.0049766693 -0.002955717 0.00066261966 -0.000733118 0.0023732977 0.003662904 0.0036188082 -0.0005392428 0.0018974133 0.0035280243 0.0030203615 0.0002724479 0.002731559 0.003775957 0.0022976613 -0.003803631 0.0014411955 0.0007543381 -0.0025254895 0.00055007427 0.0037647574 0.0037721577 -4.0598432e-05 0.0011566537 0.0013385735 0.001036759 -0.003057189 0.0010086462 0.0013536636 0.0026860384 0.0017544049 -0.00043068407 -0.0033227087
final -0.0025197214 -0.004844471 -0.0029453377 0.004075527 0.0023312268 -0.0008374333 -0.001432711 -0.0042430544 0.0045024185 0.00012967913 -0.0018758313 -0.0045872494 -0.0026073258 0.00412616 0.000746817 0.0032422047 -0.003592624 -0.0007196439 -0.0013171693 0.0007500498 -0.0010271878 0.0010714005 0.0049810484 0.00010914374 0.004955697 0.0023927146 -0.0048945923 -0.0003889799 -0.004127941 0.003497106 -0.0006767366 0.0010698468 -0.002093856 0.00036847792 -0.0022428047 0.002983685 -0.0024343384 -0.0038400544 0.0023105384 -0.002989652 -0.0044840276 -0.002348259 0.004921683 0.0012067889 -0.001429209 0.0003947461 -0.004789776 0.001965563 -0.002429547 -0.001668752 -0.0010243839 0.0030390786 0.004703599 -0.0004594097 0.0023886538 -0.0007725736 0.0008065302 -0.0020980046 -0.00021302183 -0.004362383 0.003575157 0.0007250394 0.0014075076 -0.0032171821 0.0024175919 -0.0032759767 0.00072779856 0.002657817 -0.0045017647 0.0017501123 0.004156149 0.0046795644 0.0025581038 0.004348 -0.0026985363 -0.0025830434 0.0020677056 -0.0022698066 -0.0008682005 0.0041085547 -0.0020845956 -0.0005121519 0.0030031665 0.0039498056 -0.0010448534 -0.0030434045 0.004133637 -0.0027971547 0.0036201917 -0.0022953264 0.00043490468 -0.0004972572 -0.004387428 -0.004396583 0.00087009295 0.0016836303 0.00040299533 -0.0020437967 -0.0030132884 0.0017127827
